\data\
ngram 1=88
ngram 2=133
ngram 3=119
ngram 4=102
ngram 5=85

\1-grams:
-2.1768801	<unk>	0
0	<s>	-0.30103
-0.8873648	</s>	0
-2.0109713	LOREM	-0.30103
-2.0109713	IPSUM	-0.30103
-2.0109713	DOLOR	-0.30103
-2.0109713	SIT	-0.30103
-2.0109713	AMET	-0.30103
-2.0109713	CONSECTETUR	-0.30103
-2.0109713	ADIPISCING	-0.30103
-2.1013718	ELIT	-0.30103
-2.0109713	VIVAMUS	-0.30103
-2.1013718	QUIS	-0.30103
-2.1013718	PELLENTESQUE	-0.30103
-2.0109713	MASSA	-0.30103
-2.1013718	ALIQUAM	-0.30103
-2.0109713	AT	-0.30103
-2.0109713	NULLA	-0.30103
-1.613575	NISI	-0.30103
-2.0109713	DONEC	-0.30103
-1.4966909	ULTRICES	-0.30103
-2.0109713	TURPIS	-0.30103
-1.4966909	A	-0.30103
-2.0109713	LACUS	-0.30103
-2.0109713	SCELERISQUE	-0.30103
-2.1013718	VELIT	-0.30103
-2.0109713	PURUS	-0.30103
-2.1013718	ERAT	-0.30103
-2.0109713	IMPERDIET	-0.30103
-2.1013718	VULPUTATE	-0.30103
-2.1013718	NISL	-0.30103
-2.0109713	NON	-0.30103
-2.0109713	PLACERAT	-0.30103
-1.613575	SED	-0.30103
-2.0109713	BIBENDUM	-0.30103
-2.1013718	NUNC	-0.30103
-2.0109713	SOLLICITUDIN	-0.30103
-2.0109713	ENIM	-0.30103
-2.0109713	ETIAM	-0.30103
-2.0109713	NEQUE	-0.30103
-2.0109713	VEL	-0.30103
-2.1013718	EFFICITUR	-0.30103
-2.0109713	ORNARE	-0.30103
-2.1013718	MI	-0.30103
-2.0109713	ODIO	-0.30103
-2.1013718	LAOREET	-0.30103
-2.1013718	QUAM	-0.30103
-2.0109713	AC	-0.30103
-2.1013718	MOLESTIE	-0.30103
-2.0109713	ARCU	-0.30103
-2.0109713	NIBH	-0.30103
-2.0109713	NAM	-0.30103
-2.0109713	MATTIS	-0.30103
-2.0109713	ANTE	-0.30103
-2.0109713	RHONCUS	-0.30103
-2.0109713	MORBI	-0.30103
-2.1013718	ID	-0.30103
-2.0109713	METUS	-0.30103
-2.1013718	VEHICULA	-0.30103
-2.1013718	TELLUS	-0.30103
-2.0109713	CONDIMENTUM	-0.30103
-2.0109713	FUSCE	-0.30103
-2.0109713	FRINGILLA	-0.30103
-2.0109713	INTERDUM	-0.30103
-2.0109713	PORTTITOR	-0.30103
-2.1013718	ACCUMSAN	-0.30103
-2.0109713	DUIS	-0.30103
-2.0109713	FACILISIS	-0.30103
-2.0109713	PRAESENT	-0.30103
-2.0109713	FELIS	-0.30103
-2.0109713	TEMPUS	-0.30103
-2.0109713	IN	-0.30103
-2.1013718	MAGNA	-0.30103
-2.0109713	ALIQUET	-0.30103
-2.0109713	QUISQUE	-0.30103
-2.1013718	EGET	-0.30103
-2.0109713	TORTOR	-0.30103
-2.0109713	SUSPENDISSE	-0.30103
-2.0109713	POTENTI	-0.30103
-2.0109713	FINIBUS	-0.30103
-2.0109713	HENDRERIT	-0.30103
-2.0109713	ORCI	-0.30103
-2.0109713	FERMENTUM	-0.30103
-2.0109713	CRAS	-0.30103
-2.0109713	DIGNISSIM	-0.30103
-2.0109713	MAURIS	-0.30103
-2.1013718	NEC	-0.30103
-2.0109713	IACULIS	-0.30103

\2-grams:
-0.5019591	ELIT </s>	0
-0.24810186	MASSA </s>	0
-0.63550305	NISI </s>	0
-0.72169346	ULTRICES </s>	0
-0.5019591	VELIT </s>	0
-0.24810186	ENIM </s>	0
-0.5019591	LAOREET </s>	0
-0.5019591	QUAM </s>	0
-0.24810186	NIBH </s>	0
-0.24810186	RHONCUS </s>	0
-0.5019591	VEHICULA </s>	0
-0.5019591	TELLUS </s>	0
-0.5019591	ACCUMSAN </s>	0
-0.24810186	TORTOR </s>	0
-0.24810186	POTENTI </s>	0
-0.24810186	FERMENTUM </s>	0
-0.5019591	NEC </s>	0
-1.4648701	<s> LOREM	-0.30103
-0.29681593	LOREM IPSUM	-0.30103
-0.29681593	IPSUM DOLOR	-0.30103
-0.29681593	DOLOR SIT	-0.30103
-0.29681593	SIT AMET	-0.30103
-0.29681593	AMET CONSECTETUR	-0.30103
-0.29681593	CONSECTETUR ADIPISCING	-0.30103
-0.29760468	ADIPISCING ELIT	-0.30103
-0.29760468	DIGNISSIM ELIT	-0.30103
-1.4648701	<s> VIVAMUS	-0.30103
-0.29760468	VIVAMUS QUIS	-0.30103
-0.5952362	NUNC QUIS	-0.30103
-0.5952362	QUIS PELLENTESQUE	-0.30103
-0.29760468	BIBENDUM PELLENTESQUE	-0.30103
-0.5936723	PELLENTESQUE MASSA	-0.30103
-1.2021604	<s> ALIQUAM	-0.30103
-0.29760468	NON ALIQUAM	-0.30103
-0.76562965	ALIQUAM AT	-0.30103
-0.29681593	AT NULLA	-0.30103
-0.29058337	NULLA NISI	-0.30103
-0.29058337	INTERDUM NISI	-0.30103
-0.58141214	ACCUMSAN NISI	-0.30103
-1.1958687	<s> DONEC	-0.30103
-0.57522887	DONEC ULTRICES	-0.30103
-0.28740725	LACUS ULTRICES	-0.30103
-0.57522887	VELIT ULTRICES	-0.30103
-0.28740725	FACILISIS ULTRICES	-0.30103
-0.88647354	ULTRICES TURPIS	-0.30103
-0.8509894	ULTRICES A	-0.30103
-0.28740725	TURPIS A	-0.30103
-0.28740725	ARCU A	-0.30103
-0.28740725	ANTE A	-0.30103
-0.88647354	A LACUS	-0.30103
-0.88647354	A SCELERISQUE	-0.30103
-0.29760468	SCELERISQUE VELIT	-0.30103
-0.29760468	PLACERAT VELIT	-0.30103
-0.76562965	ALIQUAM PURUS	-0.30103
-0.29760468	PURUS ERAT	-0.30103
-0.7679553	SED ERAT	-0.30103
-0.5936723	ERAT IMPERDIET	-0.30103
-0.29760468	IMPERDIET VULPUTATE	-0.30103
-0.29760468	ETIAM VULPUTATE	-0.30103
-0.5952362	VULPUTATE NISL	-0.30103
-0.5952362	EGET NISL	-0.30103
-0.5936723	NISL NON	-0.30103
-0.76562965	ALIQUAM PLACERAT	-0.30103
-1.3810666	<s> SED	-0.30103
-0.7475363	SED SED	-0.30103
-0.58141214	MAGNA SED	-0.30103
-0.5936723	ERAT BIBENDUM	-0.30103
-0.5952362	PELLENTESQUE NUNC	-0.30103
-0.29760468	PRAESENT NUNC	-0.30103
-0.5936723	QUIS SOLLICITUDIN	-0.30103
-0.29681593	SOLLICITUDIN ENIM	-0.30103
-1.4648701	<s> ETIAM	-0.30103
-0.5936723	VULPUTATE NEQUE	-0.30103
-0.29681593	NEQUE VEL	-0.30103
-0.29760468	VEL EFFICITUR	-0.30103
-0.29760468	NAM EFFICITUR	-0.30103
-0.5936723	EFFICITUR ORNARE	-0.30103
-0.29760468	ORNARE MI	-0.30103
-0.5952362	MOLESTIE MI	-0.30103
-0.5936723	MI ODIO	-0.30103
-0.88954794	ULTRICES LAOREET	-0.30103
-0.29760468	ODIO LAOREET	-0.30103
-0.5952362	NISL QUAM	-0.30103
-0.5952362	LAOREET QUAM	-0.30103
-0.5936723	QUAM AC	-0.30103
-0.29760468	AC MOLESTIE	-0.30103
-0.29760468	ALIQUET MOLESTIE	-0.30103
-0.5936723	MI ARCU	-0.30103
-0.88647354	A NIBH	-0.30103
-1.4648701	<s> NAM	-0.30103
-0.5936723	EFFICITUR MATTIS	-0.30103
-0.29681593	MATTIS ANTE	-0.30103
-0.88647354	A RHONCUS	-0.30103
-1.4648701	<s> MORBI	-0.30103
-0.29760468	MORBI ID	-0.30103
-0.5952362	DUIS ID	-0.30103
-0.5936723	ID METUS	-0.30103
-0.29760468	METUS VEHICULA	-0.30103
-0.29760468	CONDIMENTUM VEHICULA	-0.30103
-0.5952362	MOLESTIE TELLUS	-0.30103
-0.5952362	VEHICULA TELLUS	-0.30103
-0.5936723	TELLUS CONDIMENTUM	-0.30103
-1.4648701	<s> FUSCE	-0.30103
-0.29681593	FUSCE FRINGILLA	-0.30103
-0.29681593	FRINGILLA INTERDUM	-0.30103
-0.76562965	NISI PORTTITOR	-0.30103
-0.29760468	PORTTITOR ACCUMSAN	-0.30103
-0.5952362	NEC ACCUMSAN	-0.30103
-1.1958687	<s> DUIS	-0.30103
-0.5936723	DUIS FACILISIS	-0.30103
-1.4648701	<s> PRAESENT	-0.30103
-0.5936723	NUNC FELIS	-0.30103
-0.29681593	FELIS TEMPUS	-0.30103
-0.29681593	TEMPUS IN	-0.30103
-0.5952362	ID MAGNA	-0.30103
-0.29760468	IN MAGNA	-0.30103
-0.76562965	SED ALIQUET	-0.30103
-1.4648701	<s> QUISQUE	-0.30103
-0.29760468	QUISQUE EGET	-0.30103
-0.29760468	ORCI EGET	-0.30103
-0.5936723	MAGNA TORTOR	-0.30103
-1.4648701	<s> SUSPENDISSE	-0.30103
-0.29681593	SUSPENDISSE POTENTI	-0.30103
-0.5936723	DONEC FINIBUS	-0.30103
-0.29681593	FINIBUS HENDRERIT	-0.30103
-0.29681593	HENDRERIT ORCI	-0.30103
-0.5936723	EGET FERMENTUM	-0.30103
-1.4648701	<s> CRAS	-0.30103
-0.29681593	CRAS DIGNISSIM	-0.30103
-0.5936723	ELIT MAURIS	-0.30103
-0.29760468	MAURIS NEC	-0.30103
-0.29760468	IACULIS NEC	-0.30103
-0.76562965	NISI IACULIS	-0.30103

\3-grams:
-0.1821688	ADIPISCING ELIT </s>	0
-0.10656989	PELLENTESQUE MASSA </s>	0
-0.21060574	NULLA NISI </s>	0
-0.22555436	VELIT ULTRICES </s>	0
-0.1821688	PLACERAT VELIT </s>	0
-0.10656989	SOLLICITUDIN ENIM </s>	0
-0.1821688	ULTRICES LAOREET </s>	0
-0.1821688	NISL QUAM </s>	0
-0.10656989	A NIBH </s>	0
-0.10656989	A RHONCUS </s>	0
-0.1821688	CONDIMENTUM VEHICULA </s>	0
-0.1821688	MOLESTIE TELLUS </s>	0
-0.1821688	PORTTITOR ACCUMSAN </s>	0
-0.10656989	MAGNA TORTOR </s>	0
-0.10656989	SUSPENDISSE POTENTI </s>	0
-0.10656989	EGET FERMENTUM </s>	0
-0.1821688	IACULIS NEC </s>	0
-0.123529516	<s> LOREM IPSUM	-0.30103
-0.123529516	LOREM IPSUM DOLOR	-0.30103
-0.123529516	IPSUM DOLOR SIT	-0.30103
-0.123529516	DOLOR SIT AMET	-0.30103
-0.123529516	SIT AMET CONSECTETUR	-0.30103
-0.123529516	AMET CONSECTETUR ADIPISCING	-0.30103
-0.123793945	CONSECTETUR ADIPISCING ELIT	-0.30103
-0.123793945	CRAS DIGNISSIM ELIT	-0.30103
-0.123793945	<s> VIVAMUS QUIS	-0.30103
-0.2027466	PELLENTESQUE NUNC QUIS	-0.30103
-0.2027466	VIVAMUS QUIS PELLENTESQUE	-0.30103
-0.123793945	ERAT BIBENDUM PELLENTESQUE	-0.30103
-0.20242943	QUIS PELLENTESQUE MASSA	-0.30103
-0.123793945	NISL NON ALIQUAM	-0.30103
-0.47395685	<s> ALIQUAM AT	-0.30103
-0.123529516	ALIQUAM AT NULLA	-0.30103
-0.121428534	AT NULLA NISI	-0.30103
-0.121428534	FRINGILLA INTERDUM NISI	-0.30103
-0.19991113	NEC ACCUMSAN NISI	-0.30103
-0.4168396	<s> DONEC ULTRICES	-0.30103
-0.12035018	A LACUS ULTRICES	-0.30103
-0.19861951	SCELERISQUE VELIT ULTRICES	-0.30103
-0.12035018	DUIS FACILISIS ULTRICES	-0.30103
-0.24799947	DONEC ULTRICES TURPIS	-0.30103
-0.24377011	LACUS ULTRICES A	-0.30103
-0.12035018	ULTRICES TURPIS A	-0.30103
-0.12035018	MI ARCU A	-0.30103
-0.12035018	MATTIS ANTE A	-0.30103
-0.24799947	TURPIS A LACUS	-0.30103
-0.24799947	ULTRICES A SCELERISQUE	-0.30103
-0.123793945	A SCELERISQUE VELIT	-0.30103
-0.123793945	ALIQUAM PLACERAT VELIT	-0.30103
-0.47395685	<s> ALIQUAM PURUS	-0.30103
-0.123793945	ALIQUAM PURUS ERAT	-0.30103
-0.2326119	SED SED ERAT	-0.30103
-0.20242943	PURUS ERAT IMPERDIET	-0.30103
-0.123793945	ERAT IMPERDIET VULPUTATE	-0.30103
-0.123793945	<s> ETIAM VULPUTATE	-0.30103
-0.2027466	IMPERDIET VULPUTATE NISL	-0.30103
-0.2027466	QUISQUE EGET NISL	-0.30103
-0.20242943	VULPUTATE NISL NON	-0.30103
-0.23227216	NON ALIQUAM PLACERAT	-0.30103
-0.22957529	<s> SED SED	-0.30103
-0.19991113	IN MAGNA SED	-0.30103
-0.20242943	SED ERAT BIBENDUM	-0.30103
-0.2027466	BIBENDUM PELLENTESQUE NUNC	-0.30103
-0.123793945	<s> PRAESENT NUNC	-0.30103
-0.20242943	NUNC QUIS SOLLICITUDIN	-0.30103
-0.123529516	QUIS SOLLICITUDIN ENIM	-0.30103
-0.20242943	ETIAM VULPUTATE NEQUE	-0.30103
-0.123529516	VULPUTATE NEQUE VEL	-0.30103
-0.123793945	NEQUE VEL EFFICITUR	-0.30103
-0.123793945	<s> NAM EFFICITUR	-0.30103
-0.20242943	VEL EFFICITUR ORNARE	-0.30103
-0.123793945	EFFICITUR ORNARE MI	-0.30103
-0.2027466	AC MOLESTIE MI	-0.30103
-0.20242943	ORNARE MI ODIO	-0.30103
-0.24835175	FACILISIS ULTRICES LAOREET	-0.30103
-0.123793945	MI ODIO LAOREET	-0.30103
-0.2027466	EGET NISL QUAM	-0.30103
-0.2027466	ODIO LAOREET QUAM	-0.30103
-0.20242943	LAOREET QUAM AC	-0.30103
-0.123793945	QUAM AC MOLESTIE	-0.30103
-0.123793945	SED ALIQUET MOLESTIE	-0.30103
-0.20242943	MOLESTIE MI ARCU	-0.30103
-0.24799947	ARCU A NIBH	-0.30103
-0.20242943	NAM EFFICITUR MATTIS	-0.30103
-0.123529516	EFFICITUR MATTIS ANTE	-0.30103
-0.24799947	ANTE A RHONCUS	-0.30103
-0.123793945	<s> MORBI ID	-0.30103
-0.42368218	<s> DUIS ID	-0.30103
-0.20242943	MORBI ID METUS	-0.30103
-0.123793945	ID METUS VEHICULA	-0.30103
-0.123793945	TELLUS CONDIMENTUM VEHICULA	-0.30103
-0.2027466	ALIQUET MOLESTIE TELLUS	-0.30103
-0.2027466	METUS VEHICULA TELLUS	-0.30103
-0.20242943	VEHICULA TELLUS CONDIMENTUM	-0.30103
-0.123529516	<s> FUSCE FRINGILLA	-0.30103
-0.123529516	FUSCE FRINGILLA INTERDUM	-0.30103
-0.23227216	INTERDUM NISI PORTTITOR	-0.30103
-0.123793945	NISI PORTTITOR ACCUMSAN	-0.30103
-0.2027466	MAURIS NEC ACCUMSAN	-0.30103
-0.42315477	<s> DUIS FACILISIS	-0.30103
-0.20242943	PRAESENT NUNC FELIS	-0.30103
-0.123529516	NUNC FELIS TEMPUS	-0.30103
-0.123529516	FELIS TEMPUS IN	-0.30103
-0.2027466	DUIS ID MAGNA	-0.30103
-0.123793945	TEMPUS IN MAGNA	-0.30103
-0.23227216	MAGNA SED ALIQUET	-0.30103
-0.123793945	<s> QUISQUE EGET	-0.30103
-0.123793945	HENDRERIT ORCI EGET	-0.30103
-0.20242943	ID MAGNA TORTOR	-0.30103
-0.123529516	<s> SUSPENDISSE POTENTI	-0.30103
-0.42315477	<s> DONEC FINIBUS	-0.30103
-0.123529516	DONEC FINIBUS HENDRERIT	-0.30103
-0.123529516	FINIBUS HENDRERIT ORCI	-0.30103
-0.20242943	ORCI EGET FERMENTUM	-0.30103
-0.123529516	<s> CRAS DIGNISSIM	-0.30103
-0.20242943	DIGNISSIM ELIT MAURIS	-0.30103
-0.123793945	ELIT MAURIS NEC	-0.30103
-0.123793945	NISI IACULIS NEC	-0.30103
-0.23227216	ACCUMSAN NISI IACULIS	-0.30103

\4-grams:
-0.08160207	CONSECTETUR ADIPISCING ELIT </s>	0
-0.050024267	QUIS PELLENTESQUE MASSA </s>	0
-0.09265972	AT NULLA NISI </s>	0
-0.09829592	SCELERISQUE VELIT ULTRICES </s>	0
-0.08160207	ALIQUAM PLACERAT VELIT </s>	0
-0.050024267	QUIS SOLLICITUDIN ENIM </s>	0
-0.08160207	FACILISIS ULTRICES LAOREET </s>	0
-0.08160207	EGET NISL QUAM </s>	0
-0.050024267	ARCU A NIBH </s>	0
-0.050024267	ANTE A RHONCUS </s>	0
-0.08160207	TELLUS CONDIMENTUM VEHICULA </s>	0
-0.08160207	ALIQUET MOLESTIE TELLUS </s>	0
-0.08160207	NISI PORTTITOR ACCUMSAN </s>	0
-0.050024267	ID MAGNA TORTOR </s>	0
-0.050024267	<s> SUSPENDISSE POTENTI </s>	0
-0.050024267	ORCI EGET FERMENTUM </s>	0
-0.08160207	NISI IACULIS NEC </s>	0
-0.057387434	<s> LOREM IPSUM DOLOR	-0.30103
-0.057387434	LOREM IPSUM DOLOR SIT	-0.30103
-0.057387434	IPSUM DOLOR SIT AMET	-0.30103
-0.057387434	DOLOR SIT AMET CONSECTETUR	-0.30103
-0.057387434	SIT AMET CONSECTETUR ADIPISCING	-0.30103
-0.057500955	AMET CONSECTETUR ADIPISCING ELIT	-0.30103
-0.057500955	<s> CRAS DIGNISSIM ELIT	-0.30103
-0.08964789	BIBENDUM PELLENTESQUE NUNC QUIS	-0.30103
-0.08964789	<s> VIVAMUS QUIS PELLENTESQUE	-0.30103
-0.057500955	SED ERAT BIBENDUM PELLENTESQUE	-0.30103
-0.089525655	VIVAMUS QUIS PELLENTESQUE MASSA	-0.30103
-0.057500955	VULPUTATE NISL NON ALIQUAM	-0.30103
-0.057387434	<s> ALIQUAM AT NULLA	-0.30103
-0.0564841	ALIQUAM AT NULLA NISI	-0.30103
-0.0564841	FUSCE FRINGILLA INTERDUM NISI	-0.30103
-0.08855301	MAURIS NEC ACCUMSAN NISI	-0.30103
-0.056019485	TURPIS A LACUS ULTRICES	-0.30103
-0.08805281	A SCELERISQUE VELIT ULTRICES	-0.30103
-0.056019485	<s> DUIS FACILISIS ULTRICES	-0.30103
-0.106532976	<s> DONEC ULTRICES TURPIS	-0.30103
-0.10500141	A LACUS ULTRICES A	-0.30103
-0.056019485	DONEC ULTRICES TURPIS A	-0.30103
-0.056019485	MOLESTIE MI ARCU A	-0.30103
-0.056019485	EFFICITUR MATTIS ANTE A	-0.30103
-0.106532976	ULTRICES TURPIS A LACUS	-0.30103
-0.106532976	LACUS ULTRICES A SCELERISQUE	-0.30103
-0.057500955	ULTRICES A SCELERISQUE VELIT	-0.30103
-0.057500955	NON ALIQUAM PLACERAT VELIT	-0.30103
-0.057500955	<s> ALIQUAM PURUS ERAT	-0.30103
-0.100915015	<s> SED SED ERAT	-0.30103
-0.089525655	ALIQUAM PURUS ERAT IMPERDIET	-0.30103
-0.057500955	PURUS ERAT IMPERDIET VULPUTATE	-0.30103
-0.08964789	ERAT IMPERDIET VULPUTATE NISL	-0.30103
-0.08964789	<s> QUISQUE EGET NISL	-0.30103
-0.089525655	IMPERDIET VULPUTATE NISL NON	-0.30103
-0.10078953	NISL NON ALIQUAM PLACERAT	-0.30103
-0.08855301	TEMPUS IN MAGNA SED	-0.30103
-0.089525655	SED SED ERAT BIBENDUM	-0.30103
-0.08964789	ERAT BIBENDUM PELLENTESQUE NUNC	-0.30103
-0.089525655	PELLENTESQUE NUNC QUIS SOLLICITUDIN	-0.30103
-0.057387434	NUNC QUIS SOLLICITUDIN ENIM	-0.30103
-0.089525655	<s> ETIAM VULPUTATE NEQUE	-0.30103
-0.057387434	ETIAM VULPUTATE NEQUE VEL	-0.30103
-0.057500955	VULPUTATE NEQUE VEL EFFICITUR	-0.30103
-0.089525655	NEQUE VEL EFFICITUR ORNARE	-0.30103
-0.057500955	VEL EFFICITUR ORNARE MI	-0.30103
-0.08964789	QUAM AC MOLESTIE MI	-0.30103
-0.089525655	EFFICITUR ORNARE MI ODIO	-0.30103
-0.10666009	DUIS FACILISIS ULTRICES LAOREET	-0.30103
-0.057500955	ORNARE MI ODIO LAOREET	-0.30103
-0.08964789	QUISQUE EGET NISL QUAM	-0.30103
-0.08964789	MI ODIO LAOREET QUAM	-0.30103
-0.089525655	ODIO LAOREET QUAM AC	-0.30103
-0.057500955	LAOREET QUAM AC MOLESTIE	-0.30103
-0.057500955	MAGNA SED ALIQUET MOLESTIE	-0.30103
-0.089525655	AC MOLESTIE MI ARCU	-0.30103
-0.106532976	MI ARCU A NIBH	-0.30103
-0.089525655	<s> NAM EFFICITUR MATTIS	-0.30103
-0.057387434	NAM EFFICITUR MATTIS ANTE	-0.30103
-0.106532976	MATTIS ANTE A RHONCUS	-0.30103
-0.089525655	<s> MORBI ID METUS	-0.30103
-0.057500955	MORBI ID METUS VEHICULA	-0.30103
-0.057500955	VEHICULA TELLUS CONDIMENTUM VEHICULA	-0.30103
-0.08964789	SED ALIQUET MOLESTIE TELLUS	-0.30103
-0.08964789	ID METUS VEHICULA TELLUS	-0.30103
-0.089525655	METUS VEHICULA TELLUS CONDIMENTUM	-0.30103
-0.057387434	<s> FUSCE FRINGILLA INTERDUM	-0.30103
-0.10078953	FRINGILLA INTERDUM NISI PORTTITOR	-0.30103
-0.057500955	INTERDUM NISI PORTTITOR ACCUMSAN	-0.30103
-0.08964789	ELIT MAURIS NEC ACCUMSAN	-0.30103
-0.089525655	<s> PRAESENT NUNC FELIS	-0.30103
-0.057387434	PRAESENT NUNC FELIS TEMPUS	-0.30103
-0.057387434	NUNC FELIS TEMPUS IN	-0.30103
-0.08964789	<s> DUIS ID MAGNA	-0.30103
-0.057500955	FELIS TEMPUS IN MAGNA	-0.30103
-0.10078953	IN MAGNA SED ALIQUET	-0.30103
-0.057500955	FINIBUS HENDRERIT ORCI EGET	-0.30103
-0.089525655	DUIS ID MAGNA TORTOR	-0.30103
-0.057387434	<s> DONEC FINIBUS HENDRERIT	-0.30103
-0.057387434	DONEC FINIBUS HENDRERIT ORCI	-0.30103
-0.089525655	HENDRERIT ORCI EGET FERMENTUM	-0.30103
-0.089525655	CRAS DIGNISSIM ELIT MAURIS	-0.30103
-0.057500955	DIGNISSIM ELIT MAURIS NEC	-0.30103
-0.057500955	ACCUMSAN NISI IACULIS NEC	-0.30103
-0.10078953	NEC ACCUMSAN NISI IACULIS	-0.30103

\5-grams:
-0.03888726	AMET CONSECTETUR ADIPISCING ELIT </s>
-0.024292275	VIVAMUS QUIS PELLENTESQUE MASSA </s>
-0.043863334	ALIQUAM AT NULLA NISI </s>
-0.0463729	A SCELERISQUE VELIT ULTRICES </s>
-0.03888726	NON ALIQUAM PLACERAT VELIT </s>
-0.024292275	NUNC QUIS SOLLICITUDIN ENIM </s>
-0.03888726	DUIS FACILISIS ULTRICES LAOREET </s>
-0.03888726	QUISQUE EGET NISL QUAM </s>
-0.024292275	MI ARCU A NIBH </s>
-0.024292275	MATTIS ANTE A RHONCUS </s>
-0.03888726	VEHICULA TELLUS CONDIMENTUM VEHICULA </s>
-0.03888726	SED ALIQUET MOLESTIE TELLUS </s>
-0.03888726	INTERDUM NISI PORTTITOR ACCUMSAN </s>
-0.024292275	DUIS ID MAGNA TORTOR </s>
-0.024292275	HENDRERIT ORCI EGET FERMENTUM </s>
-0.03888726	ACCUMSAN NISI IACULIS NEC </s>
-0.027746513	<s> LOREM IPSUM DOLOR SIT
-0.027746513	LOREM IPSUM DOLOR SIT AMET
-0.027746513	IPSUM DOLOR SIT AMET CONSECTETUR
-0.027746513	DOLOR SIT AMET CONSECTETUR ADIPISCING
-0.027799524	SIT AMET CONSECTETUR ADIPISCING ELIT
-0.04251488	ERAT BIBENDUM PELLENTESQUE NUNC QUIS
-0.027799524	SED SED ERAT BIBENDUM PELLENTESQUE
-0.042460043	<s> VIVAMUS QUIS PELLENTESQUE MASSA
-0.027799524	IMPERDIET VULPUTATE NISL NON ALIQUAM
-0.027324423	<s> ALIQUAM AT NULLA NISI
-0.027324423	<s> FUSCE FRINGILLA INTERDUM NISI
-0.042023413	ELIT MAURIS NEC ACCUMSAN NISI
-0.02710714	ULTRICES TURPIS A LACUS ULTRICES
-0.04179865	ULTRICES A SCELERISQUE VELIT ULTRICES
-0.049335085	TURPIS A LACUS ULTRICES A
-0.02710714	<s> DONEC ULTRICES TURPIS A
-0.02710714	AC MOLESTIE MI ARCU A
-0.02710714	NAM EFFICITUR MATTIS ANTE A
-0.05000806	DONEC ULTRICES TURPIS A LACUS
-0.05000806	A LACUS ULTRICES A SCELERISQUE
-0.027799524	LACUS ULTRICES A SCELERISQUE VELIT
-0.027799524	NISL NON ALIQUAM PLACERAT VELIT
-0.042460043	<s> ALIQUAM PURUS ERAT IMPERDIET
-0.027799524	ALIQUAM PURUS ERAT IMPERDIET VULPUTATE
-0.04251488	PURUS ERAT IMPERDIET VULPUTATE NISL
-0.042460043	ERAT IMPERDIET VULPUTATE NISL NON
-0.04747743	VULPUTATE NISL NON ALIQUAM PLACERAT
-0.042023413	FELIS TEMPUS IN MAGNA SED
-0.042460043	<s> SED SED ERAT BIBENDUM
-0.04251488	SED ERAT BIBENDUM PELLENTESQUE NUNC
-0.042460043	BIBENDUM PELLENTESQUE NUNC QUIS SOLLICITUDIN
-0.027746513	PELLENTESQUE NUNC QUIS SOLLICITUDIN ENIM
-0.027746513	<s> ETIAM VULPUTATE NEQUE VEL
-0.027799524	ETIAM VULPUTATE NEQUE VEL EFFICITUR
-0.042460043	VULPUTATE NEQUE VEL EFFICITUR ORNARE
-0.027799524	NEQUE VEL EFFICITUR ORNARE MI
-0.04251488	LAOREET QUAM AC MOLESTIE MI
-0.042460043	VEL EFFICITUR ORNARE MI ODIO
-0.05006386	<s> DUIS FACILISIS ULTRICES LAOREET
-0.027799524	EFFICITUR ORNARE MI ODIO LAOREET
-0.04251488	<s> QUISQUE EGET NISL QUAM
-0.04251488	ORNARE MI ODIO LAOREET QUAM
-0.042460043	MI ODIO LAOREET QUAM AC
-0.027799524	ODIO LAOREET QUAM AC MOLESTIE
-0.027799524	IN MAGNA SED ALIQUET MOLESTIE
-0.042460043	QUAM AC MOLESTIE MI ARCU
-0.05000806	MOLESTIE MI ARCU A NIBH
-0.027746513	<s> NAM EFFICITUR MATTIS ANTE
-0.05000806	EFFICITUR MATTIS ANTE A RHONCUS
-0.027799524	<s> MORBI ID METUS VEHICULA
-0.027799524	METUS VEHICULA TELLUS CONDIMENTUM VEHICULA
-0.04251488	MAGNA SED ALIQUET MOLESTIE TELLUS
-0.04251488	MORBI ID METUS VEHICULA TELLUS
-0.042460043	ID METUS VEHICULA TELLUS CONDIMENTUM
-0.04747743	FUSCE FRINGILLA INTERDUM NISI PORTTITOR
-0.027799524	FRINGILLA INTERDUM NISI PORTTITOR ACCUMSAN
-0.04251488	DIGNISSIM ELIT MAURIS NEC ACCUMSAN
-0.027746513	<s> PRAESENT NUNC FELIS TEMPUS
-0.027746513	PRAESENT NUNC FELIS TEMPUS IN
-0.027799524	NUNC FELIS TEMPUS IN MAGNA
-0.04747743	TEMPUS IN MAGNA SED ALIQUET
-0.027799524	DONEC FINIBUS HENDRERIT ORCI EGET
-0.042460043	<s> DUIS ID MAGNA TORTOR
-0.027746513	<s> DONEC FINIBUS HENDRERIT ORCI
-0.042460043	FINIBUS HENDRERIT ORCI EGET FERMENTUM
-0.042460043	<s> CRAS DIGNISSIM ELIT MAURIS
-0.027799524	CRAS DIGNISSIM ELIT MAURIS NEC
-0.027799524	NEC ACCUMSAN NISI IACULIS NEC
-0.04747743	MAURIS NEC ACCUMSAN NISI IACULIS

\end\
